digraph Tree {
0 [label="X[10] <= 9.8500\ngini = 0.620735802469\nsamples = 900", shape="box"] ;
1 [label="X[6] <= 60.5000\ngini = 0.469060467954\nsamples = 458", shape="box"] ;
0 -> 1 ;
2 [label="X[9] <= 0.5750\ngini = 0.540134422067\nsamples = 293", shape="box"] ;
1 -> 2 ;
3 [label="X[10] <= 9.0500\ngini = 0.429943289225\nsamples = 115", shape="box"] ;
2 -> 3 ;
4 [label="X[8] <= 3.3450\ngini = 0.66\nsamples = 10", shape="box"] ;
3 -> 4 ;
5 [label="X[2] <= 0.5500\ngini = 0.448979591837\nsamples = 7", shape="box"] ;
4 -> 5 ;
6 [label="gini = 0.0000\nsamples = 5\nvalue = [ 0.  0.  0.  5.  0.  0.]", shape="box"] ;
5 -> 6 ;
7 [label="X[1] <= 0.5050\ngini = 0.5\nsamples = 2", shape="box"] ;
5 -> 7 ;
8 [label="gini = 0.0000\nsamples = 1\nvalue = [ 0.  0.  1.  0.  0.  0.]", shape="box"] ;
7 -> 8 ;
9 [label="gini = 0.0000\nsamples = 1\nvalue = [ 1.  0.  0.  0.  0.  0.]", shape="box"] ;
7 -> 9 ;
10 [label="X[7] <= 0.9976\ngini = 0.444444444444\nsamples = 3", shape="box"] ;
4 -> 10 ;
11 [label="gini = 0.0000\nsamples = 2\nvalue = [ 0.  2.  0.  0.  0.  0.]", shape="box"] ;
10 -> 11 ;
12 [label="gini = 0.0000\nsamples = 1\nvalue = [ 0.  0.  1.  0.  0.  0.]", shape="box"] ;
10 -> 12 ;
13 [label="X[3] <= 4.2000\ngini = 0.365170068027\nsamples = 105", shape="box"] ;
3 -> 13 ;
14 [label="X[1] <= 0.3150\ngini = 0.344236026016\nsamples = 103", shape="box"] ;
13 -> 14 ;
15 [label="X[9] <= 0.5350\ngini = 0.48\nsamples = 5", shape="box"] ;
14 -> 15 ;
16 [label="gini = 0.0000\nsamples = 3\nvalue = [ 0.  0.  0.  3.  0.  0.]", shape="box"] ;
15 -> 16 ;
17 [label="gini = 0.0000\nsamples = 2\nvalue = [ 0.  0.  2.  0.  0.  0.]", shape="box"] ;
15 -> 17 ;
18 [label="X[9] <= 0.3750\ngini = 0.317159516868\nsamples = 98", shape="box"] ;
14 -> 18 ;
19 [label="gini = 0.0000\nsamples = 1\nvalue = [ 0.  1.  0.  0.  0.  0.]", shape="box"] ;
18 -> 19 ;
20 [label="X[7] <= 0.9947\ngini = 0.30417685195\nsamples = 97", shape="box"] ;
18 -> 20 ;
21 [label="gini = 0.0000\nsamples = 1\nvalue = [ 0.  1.  0.  0.  0.  0.]", shape="box"] ;
20 -> 21 ;
22 [label="X[6] <= 24.0000\ngini = 0.290581597222\nsamples = 96", shape="box"] ;
20 -> 22 ;
23 [label="X[10] <= 9.6500\ngini = 0.115702479339\nsamples = 33", shape="box"] ;
22 -> 23 ;
24 [label="X[9] <= 0.5650\ngini = 0.0624349635796\nsamples = 31", shape="box"] ;
23 -> 24 ;
25 [label="gini = 0.0000\nsamples = 29\nvalue = [  0.   0.  29.   0.   0.   0.]", shape="box"] ;
24 -> 25 ;
26 [label="X[6] <= 18.5000\ngini = 0.5\nsamples = 2", shape="box"] ;
24 -> 26 ;
27 [label="gini = 0.0000\nsamples = 1\nvalue = [ 0.  0.  0.  0.  1.  0.]", shape="box"] ;
26 -> 27 ;
28 [label="gini = 0.0000\nsamples = 1\nvalue = [ 0.  0.  1.  0.  0.  0.]", shape="box"] ;
26 -> 28 ;
29 [label="X[3] <= 2.0500\ngini = 0.5\nsamples = 2", shape="box"] ;
23 -> 29 ;
30 [label="gini = 0.0000\nsamples = 1\nvalue = [ 0.  1.  0.  0.  0.  0.]", shape="box"] ;
29 -> 30 ;
31 [label="gini = 0.0000\nsamples = 1\nvalue = [ 0.  0.  1.  0.  0.  0.]", shape="box"] ;
29 -> 31 ;
32 [label="X[1] <= 0.6850\ngini = 0.362307886117\nsamples = 63", shape="box"] ;
22 -> 32 ;
33 [label="X[2] <= 0.1850\ngini = 0.448166591218\nsamples = 47", shape="box"] ;
32 -> 33 ;
34 [label="X[6] <= 39.5000\ngini = 0.489795918367\nsamples = 21", shape="box"] ;
33 -> 34 ;
35 [label="gini = 0.0000\nsamples = 6\nvalue = [ 0.  0.  0.  6.  0.  0.]", shape="box"] ;
34 -> 35 ;
36 [label="X[1] <= 0.6675\ngini = 0.32\nsamples = 15", shape="box"] ;
34 -> 36 ;
37 [label="X[2] <= 0.1450\ngini = 0.152777777778\nsamples = 12", shape="box"] ;
36 -> 37 ;
38 [label="gini = 0.0000\nsamples = 10\nvalue = [  0.   0.  10.   0.   0.   0.]", shape="box"] ;
37 -> 38 ;
39 [label="X[7] <= 0.9985\ngini = 0.5\nsamples = 2", shape="box"] ;
37 -> 39 ;
40 [label="gini = 0.0000\nsamples = 1\nvalue = [ 0.  0.  0.  1.  0.  0.]", shape="box"] ;
39 -> 40 ;
41 [label="gini = 0.0000\nsamples = 1\nvalue = [ 0.  0.  1.  0.  0.  0.]", shape="box"] ;
39 -> 41 ;
42 [label="X[3] <= 2.3500\ngini = 0.444444444444\nsamples = 3", shape="box"] ;
36 -> 42 ;
43 [label="gini = 0.0000\nsamples = 1\nvalue = [ 0.  0.  1.  0.  0.  0.]", shape="box"] ;
42 -> 43 ;
44 [label="gini = 0.0000\nsamples = 2\nvalue = [ 0.  0.  0.  2.  0.  0.]", shape="box"] ;
42 -> 44 ;
45 [label="X[5] <= 10.5000\ngini = 0.328402366864\nsamples = 26", shape="box"] ;
33 -> 45 ;
46 [label="X[8] <= 3.4000\ngini = 0.0997229916898\nsamples = 19", shape="box"] ;
45 -> 46 ;
47 [label="gini = 0.0000\nsamples = 18\nvalue = [  0.   0.  18.   0.   0.   0.]", shape="box"] ;
46 -> 47 ;
48 [label="gini = 0.0000\nsamples = 1\nvalue = [ 0.  0.  0.  1.  0.  0.]", shape="box"] ;
46 -> 48 ;
49 [label="X[1] <= 0.5250\ngini = 0.612244897959\nsamples = 7", shape="box"] ;
45 -> 49 ;
50 [label="X[2] <= 0.3550\ngini = 0.375\nsamples = 4", shape="box"] ;
49 -> 50 ;
51 [label="gini = 0.0000\nsamples = 3\nvalue = [ 0.  0.  3.  0.  0.  0.]", shape="box"] ;
50 -> 51 ;
52 [label="gini = 0.0000\nsamples = 1\nvalue = [ 0.  0.  0.  1.  0.  0.]", shape="box"] ;
50 -> 52 ;
53 [label="gini = 0.0000\nsamples = 3\nvalue = [ 0.  3.  0.  0.  0.  0.]", shape="box"] ;
49 -> 53 ;
54 [label="gini = 0.0000\nsamples = 16\nvalue = [  0.   0.  16.   0.   0.   0.]", shape="box"] ;
32 -> 54 ;
55 [label="X[9] <= 0.5600\ngini = 0.5\nsamples = 2", shape="box"] ;
13 -> 55 ;
56 [label="gini = 0.0000\nsamples = 1\nvalue = [ 0.  0.  0.  1.  0.  0.]", shape="box"] ;
55 -> 56 ;
57 [label="gini = 0.0000\nsamples = 1\nvalue = [ 0.  1.  0.  0.  0.  0.]", shape="box"] ;
55 -> 57 ;
58 [label="X[7] <= 0.9972\ngini = 0.542797626562\nsamples = 178", shape="box"] ;
2 -> 58 ;
59 [label="X[2] <= 0.0150\ngini = 0.470273483948\nsamples = 58", shape="box"] ;
58 -> 59 ;
60 [label="X[1] <= 0.6650\ngini = 0.345679012346\nsamples = 9", shape="box"] ;
59 -> 60 ;
61 [label="gini = 0.0000\nsamples = 7\nvalue = [ 0.  0.  0.  7.  0.  0.]", shape="box"] ;
60 -> 61 ;
62 [label="gini = 0.0000\nsamples = 2\nvalue = [ 0.  0.  2.  0.  0.  0.]", shape="box"] ;
60 -> 62 ;
63 [label="X[3] <= 1.9500\ngini = 0.394002498959\nsamples = 49", shape="box"] ;
59 -> 63 ;
64 [label="X[2] <= 0.3900\ngini = 0.243973703433\nsamples = 37", shape="box"] ;
63 -> 64 ;
65 [label="X[3] <= 1.4000\ngini = 0.119140625\nsamples = 32", shape="box"] ;
64 -> 65 ;
66 [label="X[9] <= 0.8300\ngini = 0.5\nsamples = 2", shape="box"] ;
65 -> 66 ;
67 [label="gini = 0.0000\nsamples = 1\nvalue = [ 0.  0.  1.  0.  0.  0.]", shape="box"] ;
66 -> 67 ;
68 [label="gini = 0.0000\nsamples = 1\nvalue = [ 0.  1.  0.  0.  0.  0.]", shape="box"] ;
66 -> 68 ;
69 [label="X[3] <= 1.8500\ngini = 0.0644444444444\nsamples = 30", shape="box"] ;
65 -> 69 ;
70 [label="gini = 0.0000\nsamples = 26\nvalue = [  0.   0.  26.   0.   0.   0.]", shape="box"] ;
69 -> 70 ;
71 [label="X[9] <= 0.6300\ngini = 0.375\nsamples = 4", shape="box"] ;
69 -> 71 ;
72 [label="gini = 0.0000\nsamples = 1\nvalue = [ 0.  0.  0.  0.  1.  0.]", shape="box"] ;
71 -> 72 ;
73 [label="gini = 0.0000\nsamples = 3\nvalue = [ 0.  0.  3.  0.  0.  0.]", shape="box"] ;
71 -> 73 ;
74 [label="X[10] <= 9.3000\ngini = 0.48\nsamples = 5", shape="box"] ;
64 -> 74 ;
75 [label="gini = 0.0000\nsamples = 3\nvalue = [ 0.  0.  0.  3.  0.  0.]", shape="box"] ;
74 -> 75 ;
76 [label="gini = 0.0000\nsamples = 2\nvalue = [ 0.  0.  2.  0.  0.  0.]", shape="box"] ;
74 -> 76 ;
77 [label="X[8] <= 3.3000\ngini = 0.569444444444\nsamples = 12", shape="box"] ;
63 -> 77 ;
78 [label="X[9] <= 0.6550\ngini = 0.448979591837\nsamples = 7", shape="box"] ;
77 -> 78 ;
79 [label="gini = 0.0000\nsamples = 5\nvalue = [ 0.  0.  5.  0.  0.  0.]", shape="box"] ;
78 -> 79 ;
80 [label="X[4] <= 0.0900\ngini = 0.5\nsamples = 2", shape="box"] ;
78 -> 80 ;
81 [label="gini = 0.0000\nsamples = 1\nvalue = [ 0.  0.  0.  0.  1.  0.]", shape="box"] ;
80 -> 81 ;
82 [label="gini = 0.0000\nsamples = 1\nvalue = [ 0.  0.  0.  1.  0.  0.]", shape="box"] ;
80 -> 82 ;
83 [label="gini = 0.0000\nsamples = 5\nvalue = [ 0.  0.  0.  5.  0.  0.]", shape="box"] ;
77 -> 83 ;
84 [label="X[9] <= 0.6550\ngini = 0.514722222222\nsamples = 120", shape="box"] ;
58 -> 84 ;
85 [label="X[5] <= 8.0000\ngini = 0.514053254438\nsamples = 52", shape="box"] ;
84 -> 85 ;
86 [label="X[9] <= 0.6150\ngini = 0.45867768595\nsamples = 22", shape="box"] ;
85 -> 86 ;
87 [label="X[3] <= 2.5500\ngini = 0.14201183432\nsamples = 13", shape="box"] ;
86 -> 87 ;
88 [label="gini = 0.0000\nsamples = 11\nvalue = [  0.   0.   0.  11.   0.   0.]", shape="box"] ;
87 -> 88 ;
89 [label="X[7] <= 0.9983\ngini = 0.5\nsamples = 2", shape="box"] ;
87 -> 89 ;
90 [label="gini = 0.0000\nsamples = 1\nvalue = [ 0.  0.  1.  0.  0.  0.]", shape="box"] ;
89 -> 90 ;
91 [label="gini = 0.0000\nsamples = 1\nvalue = [ 0.  0.  0.  1.  0.  0.]", shape="box"] ;
89 -> 91 ;
92 [label="X[4] <= 0.0845\ngini = 0.567901234568\nsamples = 9", shape="box"] ;
86 -> 92 ;
93 [label="gini = 0.0000\nsamples = 4\nvalue = [ 0.  0.  4.  0.  0.  0.]", shape="box"] ;
92 -> 93 ;
94 [label="X[7] <= 0.9991\ngini = 0.56\nsamples = 5", shape="box"] ;
92 -> 94 ;
95 [label="gini = 0.0000\nsamples = 1\nvalue = [ 0.  0.  1.  0.  0.  0.]", shape="box"] ;
94 -> 95 ;
96 [label="X[1] <= 0.5200\ngini = 0.375\nsamples = 4", shape="box"] ;
94 -> 96 ;
97 [label="gini = 0.0000\nsamples = 3\nvalue = [ 0.  0.  0.  3.  0.  0.]", shape="box"] ;
96 -> 97 ;
98 [label="gini = 0.0000\nsamples = 1\nvalue = [ 1.  0.  0.  0.  0.  0.]", shape="box"] ;
96 -> 98 ;
99 [label="X[3] <= 1.9500\ngini = 0.391111111111\nsamples = 30", shape="box"] ;
85 -> 99 ;
100 [label="X[5] <= 9.5000\ngini = 0.42\nsamples = 10", shape="box"] ;
99 -> 100 ;
101 [label="gini = 0.0000\nsamples = 2\nvalue = [ 0.  0.  2.  0.  0.  0.]", shape="box"] ;
100 -> 101 ;
102 [label="X[3] <= 1.7500\ngini = 0.21875\nsamples = 8", shape="box"] ;
100 -> 102 ;
103 [label="gini = 0.0000\nsamples = 1\nvalue = [ 0.  0.  1.  0.  0.  0.]", shape="box"] ;
102 -> 103 ;
104 [label="gini = 0.0000\nsamples = 7\nvalue = [ 0.  0.  0.  7.  0.  0.]", shape="box"] ;
102 -> 104 ;
105 [label="X[6] <= 55.5000\ngini = 0.095\nsamples = 20", shape="box"] ;
99 -> 105 ;
106 [label="gini = 0.0000\nsamples = 19\nvalue = [  0.   0.  19.   0.   0.   0.]", shape="box"] ;
105 -> 106 ;
107 [label="gini = 0.0000\nsamples = 1\nvalue = [ 0.  0.  0.  1.  0.  0.]", shape="box"] ;
105 -> 107 ;
108 [label="X[1] <= 0.2350\ngini = 0.444204152249\nsamples = 68", shape="box"] ;
84 -> 108 ;
109 [label="gini = 0.0000\nsamples = 2\nvalue = [ 0.  0.  0.  0.  2.  0.]", shape="box"] ;
108 -> 109 ;
110 [label="X[4] <= 0.0855\ngini = 0.411845730028\nsamples = 66", shape="box"] ;
108 -> 110 ;
111 [label="X[9] <= 1.2700\ngini = 0.278393351801\nsamples = 38", shape="box"] ;
110 -> 111 ;
112 [label="X[3] <= 13.2500\ngini = 0.239590942294\nsamples = 37", shape="box"] ;
111 -> 112 ;
113 [label="X[1] <= 0.5725\ngini = 0.202160493827\nsamples = 36", shape="box"] ;
112 -> 113 ;
114 [label="X[8] <= 2.9100\ngini = 0.0688775510204\nsamples = 28", shape="box"] ;
113 -> 114 ;
115 [label="X[0] <= 13.4500\ngini = 0.5\nsamples = 2", shape="box"] ;
114 -> 115 ;
116 [label="gini = 0.0000\nsamples = 1\nvalue = [ 0.  0.  0.  0.  0.  1.]", shape="box"] ;
115 -> 116 ;
117 [label="gini = 0.0000\nsamples = 1\nvalue = [ 0.  0.  0.  1.  0.  0.]", shape="box"] ;
115 -> 117 ;
118 [label="gini = 0.0000\nsamples = 26\nvalue = [  0.   0.   0.  26.   0.   0.]", shape="box"] ;
114 -> 118 ;
119 [label="X[8] <= 3.5700\ngini = 0.46875\nsamples = 8", shape="box"] ;
113 -> 119 ;
120 [label="X[1] <= 0.5825\ngini = 0.277777777778\nsamples = 6", shape="box"] ;
119 -> 120 ;
121 [label="gini = 0.0000\nsamples = 1\nvalue = [ 0.  0.  1.  0.  0.  0.]", shape="box"] ;
120 -> 121 ;
122 [label="gini = 0.0000\nsamples = 5\nvalue = [ 0.  0.  0.  5.  0.  0.]", shape="box"] ;
120 -> 122 ;
123 [label="gini = 0.0000\nsamples = 2\nvalue = [ 0.  0.  2.  0.  0.  0.]", shape="box"] ;
119 -> 123 ;
124 [label="gini = 0.0000\nsamples = 1\nvalue = [ 0.  0.  1.  0.  0.  0.]", shape="box"] ;
112 -> 124 ;
125 [label="gini = 0.0000\nsamples = 1\nvalue = [ 0.  0.  0.  0.  1.  0.]", shape="box"] ;
111 -> 125 ;
126 [label="X[6] <= 37.5000\ngini = 0.489795918367\nsamples = 28", shape="box"] ;
110 -> 126 ;
127 [label="X[8] <= 3.2900\ngini = 0.46875\nsamples = 16", shape="box"] ;
126 -> 127 ;
128 [label="X[4] <= 0.4000\ngini = 0.21875\nsamples = 8", shape="box"] ;
127 -> 128 ;
129 [label="gini = 0.0000\nsamples = 7\nvalue = [ 0.  0.  7.  0.  0.  0.]", shape="box"] ;
128 -> 129 ;
130 [label="gini = 0.0000\nsamples = 1\nvalue = [ 0.  0.  0.  1.  0.  0.]", shape="box"] ;
128 -> 130 ;
131 [label="X[9] <= 0.8850\ngini = 0.46875\nsamples = 8", shape="box"] ;
127 -> 131 ;
132 [label="X[0] <= 7.3000\ngini = 0.277777777778\nsamples = 6", shape="box"] ;
131 -> 132 ;
133 [label="gini = 0.0000\nsamples = 1\nvalue = [ 0.  0.  1.  0.  0.  0.]", shape="box"] ;
132 -> 133 ;
134 [label="gini = 0.0000\nsamples = 5\nvalue = [ 0.  0.  0.  5.  0.  0.]", shape="box"] ;
132 -> 134 ;
135 [label="gini = 0.0000\nsamples = 2\nvalue = [ 0.  0.  2.  0.  0.  0.]", shape="box"] ;
131 -> 135 ;
136 [label="X[3] <= 3.2500\ngini = 0.277777777778\nsamples = 12", shape="box"] ;
126 -> 136 ;
137 [label="X[4] <= 0.0875\ngini = 0.165289256198\nsamples = 11", shape="box"] ;
136 -> 137 ;
138 [label="gini = 0.0000\nsamples = 1\nvalue = [ 0.  0.  1.  0.  0.  0.]", shape="box"] ;
137 -> 138 ;
139 [label="gini = 0.0000\nsamples = 10\nvalue = [  0.   0.   0.  10.   0.   0.]", shape="box"] ;
137 -> 139 ;
140 [label="gini = 0.0000\nsamples = 1\nvalue = [ 0.  0.  1.  0.  0.  0.]", shape="box"] ;
136 -> 140 ;
141 [label="X[0] <= 7.1500\ngini = 0.246538108356\nsamples = 165", shape="box"] ;
1 -> 141 ;
142 [label="X[9] <= 0.5750\ngini = 0.526315789474\nsamples = 19", shape="box"] ;
141 -> 142 ;
143 [label="X[0] <= 6.7500\ngini = 0.277777777778\nsamples = 6", shape="box"] ;
142 -> 143 ;
144 [label="gini = 0.0000\nsamples = 1\nvalue = [ 0.  0.  1.  0.  0.  0.]", shape="box"] ;
143 -> 144 ;
145 [label="gini = 0.0000\nsamples = 5\nvalue = [ 0.  0.  0.  5.  0.  0.]", shape="box"] ;
143 -> 145 ;
146 [label="X[1] <= 0.8550\ngini = 0.378698224852\nsamples = 13", shape="box"] ;
142 -> 146 ;
147 [label="X[5] <= 8.5000\ngini = 0.277777777778\nsamples = 12", shape="box"] ;
146 -> 147 ;
148 [label="gini = 0.0000\nsamples = 1\nvalue = [ 0.  0.  0.  1.  0.  0.]", shape="box"] ;
147 -> 148 ;
149 [label="X[2] <= 0.0250\ngini = 0.165289256198\nsamples = 11", shape="box"] ;
147 -> 149 ;
150 [label="X[9] <= 0.5950\ngini = 0.5\nsamples = 2", shape="box"] ;
149 -> 150 ;
151 [label="gini = 0.0000\nsamples = 1\nvalue = [ 0.  0.  1.  0.  0.  0.]", shape="box"] ;
150 -> 151 ;
152 [label="gini = 0.0000\nsamples = 1\nvalue = [ 0.  0.  0.  1.  0.  0.]", shape="box"] ;
150 -> 152 ;
153 [label="gini = 0.0000\nsamples = 9\nvalue = [ 0.  0.  9.  0.  0.  0.]", shape="box"] ;
149 -> 153 ;
154 [label="gini = 0.0000\nsamples = 1\nvalue = [ 0.  1.  0.  0.  0.  0.]", shape="box"] ;
146 -> 154 ;
155 [label="X[2] <= 0.8500\ngini = 0.188496903734\nsamples = 146", shape="box"] ;
141 -> 155 ;
156 [label="X[3] <= 1.5500\ngini = 0.177598097503\nsamples = 145", shape="box"] ;
155 -> 156 ;
157 [label="gini = 0.0000\nsamples = 1\nvalue = [ 0.  1.  0.  0.  0.  0.]", shape="box"] ;
156 -> 157 ;
158 [label="X[8] <= 3.5650\ngini = 0.166377314815\nsamples = 144", shape="box"] ;
156 -> 158 ;
159 [label="X[4] <= 0.0675\ngini = 0.154824196782\nsamples = 143", shape="box"] ;
158 -> 159 ;
160 [label="gini = 0.0000\nsamples = 1\nvalue = [ 0.  0.  0.  1.  0.  0.]", shape="box"] ;
159 -> 160 ;
161 [label="X[7] <= 0.9957\ngini = 0.143919857171\nsamples = 142", shape="box"] ;
159 -> 161 ;
162 [label="gini = 0.0000\nsamples = 1\nvalue = [ 0.  0.  0.  1.  0.  0.]", shape="box"] ;
161 -> 162 ;
163 [label="X[6] <= 105.5000\ngini = 0.13268950254\nsamples = 141", shape="box"] ;
161 -> 163 ;
164 [label="X[9] <= 1.6000\ngini = 0.212301587302\nsamples = 84", shape="box"] ;
163 -> 164 ;
165 [label="X[9] <= 0.5750\ngini = 0.195674263318\nsamples = 83", shape="box"] ;
164 -> 165 ;
166 [label="X[4] <= 0.0730\ngini = 0.04875\nsamples = 40", shape="box"] ;
165 -> 166 ;
167 [label="X[0] <= 8.0500\ngini = 0.5\nsamples = 2", shape="box"] ;
166 -> 167 ;
168 [label="gini = 0.0000\nsamples = 1\nvalue = [ 0.  0.  0.  1.  0.  0.]", shape="box"] ;
167 -> 168 ;
169 [label="gini = 0.0000\nsamples = 1\nvalue = [ 0.  0.  1.  0.  0.  0.]", shape="box"] ;
167 -> 169 ;
170 [label="gini = 0.0000\nsamples = 38\nvalue = [  0.   0.  38.   0.   0.   0.]", shape="box"] ;
166 -> 170 ;
171 [label="X[4] <= 0.0965\ngini = 0.310438074635\nsamples = 43", shape="box"] ;
165 -> 171 ;
172 [label="X[3] <= 2.4500\ngini = 0.515\nsamples = 20", shape="box"] ;
171 -> 172 ;
173 [label="X[8] <= 3.5250\ngini = 0.197530864198\nsamples = 9", shape="box"] ;
172 -> 173 ;
174 [label="gini = 0.0000\nsamples = 8\nvalue = [ 0.  0.  8.  0.  0.  0.]", shape="box"] ;
173 -> 174 ;
175 [label="gini = 0.0000\nsamples = 1\nvalue = [ 0.  0.  0.  1.  0.  0.]", shape="box"] ;
173 -> 175 ;
176 [label="X[3] <= 3.1500\ngini = 0.561983471074\nsamples = 11", shape="box"] ;
172 -> 176 ;
177 [label="X[2] <= 0.5350\ngini = 0.40625\nsamples = 8", shape="box"] ;
176 -> 177 ;
178 [label="X[4] <= 0.0765\ngini = 0.244897959184\nsamples = 7", shape="box"] ;
177 -> 178 ;
179 [label="gini = 0.0000\nsamples = 1\nvalue = [ 0.  1.  0.  0.  0.  0.]", shape="box"] ;
178 -> 179 ;
180 [label="gini = 0.0000\nsamples = 6\nvalue = [ 0.  0.  0.  6.  0.  0.]", shape="box"] ;
178 -> 180 ;
181 [label="gini = 0.0000\nsamples = 1\nvalue = [ 0.  0.  1.  0.  0.  0.]", shape="box"] ;
177 -> 181 ;
182 [label="gini = 0.0000\nsamples = 3\nvalue = [ 0.  0.  3.  0.  0.  0.]", shape="box"] ;
176 -> 182 ;
183 [label="gini = 0.0000\nsamples = 23\nvalue = [  0.   0.  23.   0.   0.   0.]", shape="box"] ;
171 -> 183 ;
184 [label="gini = 0.0000\nsamples = 1\nvalue = [ 0.  0.  0.  1.  0.  0.]", shape="box"] ;
164 -> 184 ;
185 [label="gini = 0.0000\nsamples = 57\nvalue = [  0.   0.  57.   0.   0.   0.]", shape="box"] ;
163 -> 185 ;
186 [label="gini = 0.0000\nsamples = 1\nvalue = [ 0.  1.  0.  0.  0.  0.]", shape="box"] ;
158 -> 186 ;
187 [label="gini = 0.0000\nsamples = 1\nvalue = [ 0.  1.  0.  0.  0.  0.]", shape="box"] ;
155 -> 187 ;
188 [label="X[10] <= 11.5500\ngini = 0.668680002457\nsamples = 442", shape="box"] ;
0 -> 188 ;
189 [label="X[1] <= 0.3350\ngini = 0.642673354924\nsamples = 351", shape="box"] ;
188 -> 189 ;
190 [label="X[10] <= 10.3500\ngini = 0.578141687433\nsamples = 53", shape="box"] ;
189 -> 190 ;
191 [label="X[10] <= 9.9500\ngini = 0.308390022676\nsamples = 21", shape="box"] ;
190 -> 191 ;
192 [label="gini = 0.0000\nsamples = 2\nvalue = [ 0.  0.  0.  0.  2.  0.]", shape="box"] ;
191 -> 192 ;
193 [label="X[6] <= 10.5000\ngini = 0.18836565097\nsamples = 19", shape="box"] ;
191 -> 193 ;
194 [label="gini = 0.0000\nsamples = 1\nvalue = [ 0.  0.  0.  0.  1.  0.]", shape="box"] ;
193 -> 194 ;
195 [label="X[4] <= 0.0575\ngini = 0.104938271605\nsamples = 18", shape="box"] ;
193 -> 195 ;
196 [label="X[1] <= 0.3000\ngini = 0.5\nsamples = 2", shape="box"] ;
195 -> 196 ;
197 [label="gini = 0.0000\nsamples = 1\nvalue = [ 0.  0.  0.  1.  0.  0.]", shape="box"] ;
196 -> 197 ;
198 [label="gini = 0.0000\nsamples = 1\nvalue = [ 0.  0.  0.  0.  1.  0.]", shape="box"] ;
196 -> 198 ;
199 [label="gini = 0.0000\nsamples = 16\nvalue = [  0.   0.   0.  16.   0.   0.]", shape="box"] ;
195 -> 199 ;
200 [label="X[9] <= 0.6350\ngini = 0.478515625\nsamples = 32", shape="box"] ;
190 -> 200 ;
201 [label="X[9] <= 0.5950\ngini = 0.56\nsamples = 5", shape="box"] ;
200 -> 201 ;
202 [label="X[5] <= 13.0000\ngini = 0.5\nsamples = 2", shape="box"] ;
201 -> 202 ;
203 [label="gini = 0.0000\nsamples = 1\nvalue = [ 0.  0.  0.  0.  1.  0.]", shape="box"] ;
202 -> 203 ;
204 [label="gini = 0.0000\nsamples = 1\nvalue = [ 0.  0.  0.  1.  0.  0.]", shape="box"] ;
202 -> 204 ;
205 [label="gini = 0.0000\nsamples = 3\nvalue = [ 0.  0.  3.  0.  0.  0.]", shape="box"] ;
201 -> 205 ;
206 [label="X[4] <= 0.2190\ngini = 0.367626886145\nsamples = 27", shape="box"] ;
200 -> 206 ;
207 [label="X[9] <= 1.0550\ngini = 0.322485207101\nsamples = 26", shape="box"] ;
206 -> 207 ;
208 [label="X[5] <= 24.5000\ngini = 0.2784\nsamples = 25", shape="box"] ;
207 -> 208 ;
209 [label="X[6] <= 21.5000\ngini = 0.0997229916898\nsamples = 19", shape="box"] ;
208 -> 209 ;
210 [label="X[1] <= 0.3050\ngini = 0.32\nsamples = 5", shape="box"] ;
209 -> 210 ;
211 [label="gini = 0.0000\nsamples = 4\nvalue = [ 0.  0.  0.  0.  4.  0.]", shape="box"] ;
210 -> 211 ;
212 [label="gini = 0.0000\nsamples = 1\nvalue = [ 0.  0.  0.  1.  0.  0.]", shape="box"] ;
210 -> 212 ;
213 [label="gini = 0.0000\nsamples = 14\nvalue = [  0.   0.   0.   0.  14.   0.]", shape="box"] ;
209 -> 213 ;
214 [label="X[5] <= 31.0000\ngini = 0.611111111111\nsamples = 6", shape="box"] ;
208 -> 214 ;
215 [label="X[3] <= 1.9000\ngini = 0.444444444444\nsamples = 3", shape="box"] ;
214 -> 215 ;
216 [label="gini = 0.0000\nsamples = 2\nvalue = [ 0.  0.  0.  2.  0.  0.]", shape="box"] ;
215 -> 216 ;
217 [label="gini = 0.0000\nsamples = 1\nvalue = [ 0.  0.  1.  0.  0.  0.]", shape="box"] ;
215 -> 217 ;
218 [label="gini = 0.0000\nsamples = 3\nvalue = [ 0.  0.  0.  0.  3.  0.]", shape="box"] ;
214 -> 218 ;
219 [label="gini = 0.0000\nsamples = 1\nvalue = [ 0.  0.  0.  1.  0.  0.]", shape="box"] ;
207 -> 219 ;
220 [label="gini = 0.0000\nsamples = 1\nvalue = [ 0.  0.  1.  0.  0.  0.]", shape="box"] ;
206 -> 220 ;
221 [label="X[9] <= 0.5450\ngini = 0.612472411153\nsamples = 298", shape="box"] ;
189 -> 221 ;
222 [label="X[7] <= 0.9949\ngini = 0.510926118626\nsamples = 62", shape="box"] ;
221 -> 222 ;
223 [label="X[1] <= 1.0000\ngini = 0.71875\nsamples = 8", shape="box"] ;
222 -> 223 ;
224 [label="X[10] <= 10.6000\ngini = 0.611111111111\nsamples = 6", shape="box"] ;
223 -> 224 ;
225 [label="X[7] <= 0.9945\ngini = 0.444444444444\nsamples = 3", shape="box"] ;
224 -> 225 ;
226 [label="gini = 0.0000\nsamples = 2\nvalue = [ 0.  0.  2.  0.  0.  0.]", shape="box"] ;
225 -> 226 ;
227 [label="gini = 0.0000\nsamples = 1\nvalue = [ 0.  0.  0.  0.  1.  0.]", shape="box"] ;
225 -> 227 ;
228 [label="gini = 0.0000\nsamples = 3\nvalue = [ 0.  0.  0.  3.  0.  0.]", shape="box"] ;
224 -> 228 ;
229 [label="gini = 0.0000\nsamples = 2\nvalue = [ 0.  2.  0.  0.  0.  0.]", shape="box"] ;
223 -> 229 ;
230 [label="X[0] <= 7.7500\ngini = 0.439643347051\nsamples = 54", shape="box"] ;
222 -> 230 ;
231 [label="X[1] <= 0.3850\ngini = 0.1504\nsamples = 25", shape="box"] ;
230 -> 231 ;
232 [label="gini = 0.0000\nsamples = 1\nvalue = [ 0.  1.  0.  0.  0.  0.]", shape="box"] ;
231 -> 232 ;
233 [label="X[1] <= 1.0925\ngini = 0.0798611111111\nsamples = 24", shape="box"] ;
231 -> 233 ;
234 [label="gini = 0.0000\nsamples = 23\nvalue = [  0.   0.  23.   0.   0.   0.]", shape="box"] ;
233 -> 234 ;
235 [label="gini = 0.0000\nsamples = 1\nvalue = [ 1.  0.  0.  0.  0.  0.]", shape="box"] ;
233 -> 235 ;
236 [label="X[0] <= 8.0500\ngini = 0.570749108205\nsamples = 29", shape="box"] ;
230 -> 236 ;
237 [label="gini = 0.0000\nsamples = 3\nvalue = [ 0.  0.  0.  3.  0.  0.]", shape="box"] ;
236 -> 237 ;
238 [label="X[3] <= 3.5250\ngini = 0.541420118343\nsamples = 26", shape="box"] ;
236 -> 238 ;
239 [label="X[6] <= 11.5000\ngini = 0.458049886621\nsamples = 21", shape="box"] ;
238 -> 239 ;
240 [label="gini = 0.0000\nsamples = 1\nvalue = [ 1.  0.  0.  0.  0.  0.]", shape="box"] ;
239 -> 240 ;
241 [label="X[9] <= 0.4250\ngini = 0.405\nsamples = 20", shape="box"] ;
239 -> 241 ;
242 [label="gini = 0.0000\nsamples = 1\nvalue = [ 0.  0.  0.  1.  0.  0.]", shape="box"] ;
241 -> 242 ;
243 [label="X[8] <= 3.2450\ngini = 0.354570637119\nsamples = 19", shape="box"] ;
241 -> 243 ;
244 [label="gini = 0.0000\nsamples = 8\nvalue = [ 0.  0.  8.  0.  0.  0.]", shape="box"] ;
243 -> 244 ;
245 [label="X[8] <= 3.3500\ngini = 0.528925619835\nsamples = 11", shape="box"] ;
243 -> 245 ;
246 [label="X[9] <= 0.5250\ngini = 0.64\nsamples = 5", shape="box"] ;
245 -> 246 ;
247 [label="X[9] <= 0.4500\ngini = 0.444444444444\nsamples = 3", shape="box"] ;
246 -> 247 ;
248 [label="gini = 0.0000\nsamples = 1\nvalue = [ 0.  0.  1.  0.  0.  0.]", shape="box"] ;
247 -> 248 ;
249 [label="gini = 0.0000\nsamples = 2\nvalue = [ 0.  2.  0.  0.  0.  0.]", shape="box"] ;
247 -> 249 ;
250 [label="gini = 0.0000\nsamples = 2\nvalue = [ 0.  0.  0.  2.  0.  0.]", shape="box"] ;
246 -> 250 ;
251 [label="gini = 0.0000\nsamples = 6\nvalue = [ 0.  0.  6.  0.  0.  0.]", shape="box"] ;
245 -> 251 ;
252 [label="X[1] <= 0.8225\ngini = 0.32\nsamples = 5", shape="box"] ;
238 -> 252 ;
253 [label="gini = 0.0000\nsamples = 4\nvalue = [ 0.  0.  0.  4.  0.  0.]", shape="box"] ;
252 -> 253 ;
254 [label="gini = 0.0000\nsamples = 1\nvalue = [ 0.  0.  1.  0.  0.  0.]", shape="box"] ;
252 -> 254 ;
255 [label="X[3] <= 4.1000\ngini = 0.591353059466\nsamples = 236", shape="box"] ;
221 -> 255 ;
256 [label="X[4] <= 0.0675\ngini = 0.560952380952\nsamples = 210", shape="box"] ;
255 -> 256 ;
257 [label="X[7] <= 0.9965\ngini = 0.635160680529\nsamples = 23", shape="box"] ;
256 -> 257 ;
258 [label="X[9] <= 0.6450\ngini = 0.740740740741\nsamples = 9", shape="box"] ;
257 -> 258 ;
259 [label="X[2] <= 0.2700\ngini = 0.666666666667\nsamples = 6", shape="box"] ;
258 -> 259 ;
260 [label="X[4] <= 0.0565\ngini = 0.5\nsamples = 4", shape="box"] ;
259 -> 260 ;
261 [label="gini = 0.0000\nsamples = 2\nvalue = [ 0.  0.  2.  0.  0.  0.]", shape="box"] ;
260 -> 261 ;
262 [label="gini = 0.0000\nsamples = 2\nvalue = [ 0.  2.  0.  0.  0.  0.]", shape="box"] ;
260 -> 262 ;
263 [label="gini = 0.0000\nsamples = 2\nvalue = [ 0.  0.  0.  2.  0.  0.]", shape="box"] ;
259 -> 263 ;
264 [label="gini = 0.0000\nsamples = 3\nvalue = [ 0.  0.  0.  0.  3.  0.]", shape="box"] ;
258 -> 264 ;
265 [label="X[1] <= 0.5050\ngini = 0.408163265306\nsamples = 14", shape="box"] ;
257 -> 265 ;
266 [label="X[8] <= 3.2500\ngini = 0.444444444444\nsamples = 6", shape="box"] ;
265 -> 266 ;
267 [label="gini = 0.0000\nsamples = 4\nvalue = [ 0.  0.  0.  4.  0.  0.]", shape="box"] ;
266 -> 267 ;
268 [label="gini = 0.0000\nsamples = 2\nvalue = [ 0.  0.  2.  0.  0.  0.]", shape="box"] ;
266 -> 268 ;
269 [label="gini = 0.0000\nsamples = 8\nvalue = [ 0.  0.  8.  0.  0.  0.]", shape="box"] ;
265 -> 269 ;
270 [label="X[6] <= 12.5000\ngini = 0.528525265235\nsamples = 187", shape="box"] ;
256 -> 270 ;
271 [label="gini = 0.0000\nsamples = 2\nvalue = [ 0.  2.  0.  0.  0.  0.]", shape="box"] ;
270 -> 271 ;
272 [label="X[5] <= 34.5000\ngini = 0.518860482104\nsamples = 185", shape="box"] ;
270 -> 272 ;
273 [label="X[5] <= 12.5000\ngini = 0.503379591837\nsamples = 175", shape="box"] ;
272 -> 273 ;
274 [label="X[2] <= 0.6550\ngini = 0.584177777778\nsamples = 75", shape="box"] ;
273 -> 274 ;
275 [label="X[1] <= 0.8350\ngini = 0.537551020408\nsamples = 70", shape="box"] ;
274 -> 275 ;
276 [label="X[9] <= 0.7350\ngini = 0.49173553719\nsamples = 66", shape="box"] ;
275 -> 276 ;
277 [label="X[2] <= 0.0600\ngini = 0.524408284024\nsamples = 52", shape="box"] ;
276 -> 277 ;
278 [label="gini = 0.0000\nsamples = 3\nvalue = [ 0.  0.  3.  0.  0.  0.]", shape="box"] ;
277 -> 278 ;
279 [label="X[0] <= 8.7000\ngini = 0.513119533528\nsamples = 49", shape="box"] ;
277 -> 279 ;
280 [label="X[2] <= 0.1300\ngini = 0.308390022676\nsamples = 21", shape="box"] ;
279 -> 280 ;
281 [label="X[7] <= 0.9961\ngini = 0.48\nsamples = 5", shape="box"] ;
280 -> 281 ;
282 [label="gini = 0.0000\nsamples = 2\nvalue = [ 0.  0.  0.  2.  0.  0.]", shape="box"] ;
281 -> 282 ;
283 [label="gini = 0.0000\nsamples = 3\nvalue = [ 0.  0.  3.  0.  0.  0.]", shape="box"] ;
281 -> 283 ;
284 [label="X[3] <= 3.1000\ngini = 0.1171875\nsamples = 16", shape="box"] ;
280 -> 284 ;
285 [label="gini = 0.0000\nsamples = 15\nvalue = [  0.   0.   0.  15.   0.   0.]", shape="box"] ;
284 -> 285 ;
286 [label="gini = 0.0000\nsamples = 1\nvalue = [ 0.  0.  1.  0.  0.  0.]", shape="box"] ;
284 -> 286 ;
287 [label="X[4] <= 0.0855\ngini = 0.561224489796\nsamples = 28", shape="box"] ;
279 -> 287 ;
288 [label="X[5] <= 5.5000\ngini = 0.53125\nsamples = 16", shape="box"] ;
287 -> 288 ;
289 [label="X[9] <= 0.6050\ngini = 0.625\nsamples = 8", shape="box"] ;
288 -> 289 ;
290 [label="gini = 0.0000\nsamples = 4\nvalue = [ 0.  0.  4.  0.  0.  0.]", shape="box"] ;
289 -> 290 ;
291 [label="X[6] <= 17.0000\ngini = 0.5\nsamples = 4", shape="box"] ;
289 -> 291 ;
292 [label="gini = 0.0000\nsamples = 2\nvalue = [ 0.  0.  0.  0.  0.  2.]", shape="box"] ;
291 -> 292 ;
293 [label="gini = 0.0000\nsamples = 2\nvalue = [ 0.  0.  0.  2.  0.  0.]", shape="box"] ;
291 -> 293 ;
294 [label="gini = 0.0000\nsamples = 8\nvalue = [ 0.  0.  0.  8.  0.  0.]", shape="box"] ;
288 -> 294 ;
295 [label="X[10] <= 10.7000\ngini = 0.277777777778\nsamples = 12", shape="box"] ;
287 -> 295 ;
296 [label="gini = 0.0000\nsamples = 9\nvalue = [ 0.  0.  9.  0.  0.  0.]", shape="box"] ;
295 -> 296 ;
297 [label="X[9] <= 0.7150\ngini = 0.444444444444\nsamples = 3", shape="box"] ;
295 -> 297 ;
298 [label="gini = 0.0000\nsamples = 2\nvalue = [ 0.  0.  0.  2.  0.  0.]", shape="box"] ;
297 -> 298 ;
299 [label="gini = 0.0000\nsamples = 1\nvalue = [ 0.  0.  1.  0.  0.  0.]", shape="box"] ;
297 -> 299 ;
300 [label="X[4] <= 0.0720\ngini = 0.244897959184\nsamples = 14", shape="box"] ;
276 -> 300 ;
301 [label="X[8] <= 3.3100\ngini = 0.444444444444\nsamples = 3", shape="box"] ;
300 -> 301 ;
302 [label="gini = 0.0000\nsamples = 2\nvalue = [ 0.  0.  2.  0.  0.  0.]", shape="box"] ;
301 -> 302 ;
303 [label="gini = 0.0000\nsamples = 1\nvalue = [ 0.  0.  0.  1.  0.  0.]", shape="box"] ;
301 -> 303 ;
304 [label="gini = 0.0000\nsamples = 11\nvalue = [  0.   0.   0.  11.   0.   0.]", shape="box"] ;
300 -> 304 ;
305 [label="X[9] <= 0.6450\ngini = 0.625\nsamples = 4", shape="box"] ;
275 -> 305 ;
306 [label="gini = 0.0000\nsamples = 2\nvalue = [ 0.  2.  0.  0.  0.  0.]", shape="box"] ;
305 -> 306 ;
307 [label="X[2] <= 0.2100\ngini = 0.5\nsamples = 2", shape="box"] ;
305 -> 307 ;
308 [label="gini = 0.0000\nsamples = 1\nvalue = [ 0.  0.  0.  0.  1.  0.]", shape="box"] ;
307 -> 308 ;
309 [label="gini = 0.0000\nsamples = 1\nvalue = [ 0.  0.  1.  0.  0.  0.]", shape="box"] ;
307 -> 309 ;
310 [label="X[3] <= 2.7500\ngini = 0.32\nsamples = 5", shape="box"] ;
274 -> 310 ;
311 [label="gini = 0.0000\nsamples = 1\nvalue = [ 0.  0.  1.  0.  0.  0.]", shape="box"] ;
310 -> 311 ;
312 [label="gini = 0.0000\nsamples = 4\nvalue = [ 0.  0.  0.  0.  4.  0.]", shape="box"] ;
310 -> 312 ;
313 [label="X[3] <= 1.6000\ngini = 0.4162\nsamples = 100", shape="box"] ;
273 -> 313 ;
314 [label="X[6] <= 45.0000\ngini = 0.5\nsamples = 2", shape="box"] ;
313 -> 314 ;
315 [label="gini = 0.0000\nsamples = 1\nvalue = [ 0.  0.  0.  0.  1.  0.]", shape="box"] ;
314 -> 315 ;
316 [label="gini = 0.0000\nsamples = 1\nvalue = [ 1.  0.  0.  0.  0.  0.]", shape="box"] ;
314 -> 316 ;
317 [label="X[6] <= 37.5000\ngini = 0.393377759267\nsamples = 98", shape="box"] ;
313 -> 317 ;
318 [label="X[4] <= 0.1110\ngini = 0.0867768595041\nsamples = 22", shape="box"] ;
317 -> 318 ;
319 [label="gini = 0.0000\nsamples = 21\nvalue = [  0.   0.   0.  21.   0.   0.]", shape="box"] ;
318 -> 319 ;
320 [label="gini = 0.0000\nsamples = 1\nvalue = [ 0.  0.  1.  0.  0.  0.]", shape="box"] ;
318 -> 320 ;
321 [label="X[6] <= 40.5000\ngini = 0.459141274238\nsamples = 76", shape="box"] ;
317 -> 321 ;
322 [label="gini = 0.0000\nsamples = 3\nvalue = [ 0.  0.  3.  0.  0.  0.]", shape="box"] ;
321 -> 322 ;
323 [label="X[1] <= 0.4050\ngini = 0.431225370614\nsamples = 73", shape="box"] ;
321 -> 323 ;
324 [label="X[10] <= 10.2500\ngini = 0.561224489796\nsamples = 14", shape="box"] ;
323 -> 324 ;
325 [label="X[4] <= 0.0940\ngini = 0.5\nsamples = 6", shape="box"] ;
324 -> 325 ;
326 [label="X[6] <= 71.5000\ngini = 0.32\nsamples = 5", shape="box"] ;
325 -> 326 ;
327 [label="gini = 0.0000\nsamples = 4\nvalue = [ 0.  0.  4.  0.  0.  0.]", shape="box"] ;
326 -> 327 ;
328 [label="gini = 0.0000\nsamples = 1\nvalue = [ 0.  0.  0.  1.  0.  0.]", shape="box"] ;
326 -> 328 ;
329 [label="gini = 0.0000\nsamples = 1\nvalue = [ 0.  0.  0.  0.  1.  0.]", shape="box"] ;
325 -> 329 ;
330 [label="X[6] <= 70.5000\ngini = 0.375\nsamples = 8", shape="box"] ;
324 -> 330 ;
331 [label="gini = 0.0000\nsamples = 5\nvalue = [ 0.  0.  0.  5.  0.  0.]", shape="box"] ;
330 -> 331 ;
332 [label="X[4] <= 0.0920\ngini = 0.444444444444\nsamples = 3", shape="box"] ;
330 -> 332 ;
333 [label="gini = 0.0000\nsamples = 2\nvalue = [ 0.  0.  2.  0.  0.  0.]", shape="box"] ;
332 -> 333 ;
334 [label="gini = 0.0000\nsamples = 1\nvalue = [ 0.  0.  0.  1.  0.  0.]", shape="box"] ;
332 -> 334 ;
335 [label="X[8] <= 3.2350\ngini = 0.368859523126\nsamples = 59", shape="box"] ;
323 -> 335 ;
336 [label="X[9] <= 0.5950\ngini = 0.174817898023\nsamples = 31", shape="box"] ;
335 -> 336 ;
337 [label="X[4] <= 0.0795\ngini = 0.5\nsamples = 6", shape="box"] ;
336 -> 337 ;
338 [label="gini = 0.0000\nsamples = 3\nvalue = [ 0.  0.  0.  3.  0.  0.]", shape="box"] ;
337 -> 338 ;
339 [label="gini = 0.0000\nsamples = 3\nvalue = [ 0.  0.  3.  0.  0.  0.]", shape="box"] ;
337 -> 339 ;
340 [label="gini = 0.0000\nsamples = 25\nvalue = [  0.   0.   0.  25.   0.   0.]", shape="box"] ;
336 -> 340 ;
341 [label="X[10] <= 10.3500\ngini = 0.533163265306\nsamples = 28", shape="box"] ;
335 -> 341 ;
342 [label="X[9] <= 0.7900\ngini = 0.32\nsamples = 5", shape="box"] ;
341 -> 342 ;
343 [label="gini = 0.0000\nsamples = 4\nvalue = [ 0.  0.  4.  0.  0.  0.]", shape="box"] ;
342 -> 343 ;
344 [label="gini = 0.0000\nsamples = 1\nvalue = [ 0.  0.  0.  1.  0.  0.]", shape="box"] ;
342 -> 344 ;
345 [label="X[9] <= 0.7050\ngini = 0.41965973535\nsamples = 23", shape="box"] ;
341 -> 345 ;
346 [label="X[5] <= 17.5000\ngini = 0.1171875\nsamples = 16", shape="box"] ;
345 -> 346 ;
347 [label="gini = 0.0000\nsamples = 1\nvalue = [ 0.  1.  0.  0.  0.  0.]", shape="box"] ;
346 -> 347 ;
348 [label="gini = 0.0000\nsamples = 15\nvalue = [  0.   0.   0.  15.   0.   0.]", shape="box"] ;
346 -> 348 ;
349 [label="X[7] <= 0.9992\ngini = 0.571428571429\nsamples = 7", shape="box"] ;
345 -> 349 ;
350 [label="gini = 0.0000\nsamples = 4\nvalue = [ 0.  0.  0.  0.  4.  0.]", shape="box"] ;
349 -> 350 ;
351 [label="X[2] <= 0.5100\ngini = 0.444444444444\nsamples = 3", shape="box"] ;
349 -> 351 ;
352 [label="gini = 0.0000\nsamples = 2\nvalue = [ 0.  0.  0.  2.  0.  0.]", shape="box"] ;
351 -> 352 ;
353 [label="gini = 0.0000\nsamples = 1\nvalue = [ 0.  0.  1.  0.  0.  0.]", shape="box"] ;
351 -> 353 ;
354 [label="X[4] <= 0.0830\ngini = 0.54\nsamples = 10", shape="box"] ;
272 -> 354 ;
355 [label="gini = 0.0000\nsamples = 3\nvalue = [ 0.  0.  0.  3.  0.  0.]", shape="box"] ;
354 -> 355 ;
356 [label="X[9] <= 0.8250\ngini = 0.244897959184\nsamples = 7", shape="box"] ;
354 -> 356 ;
357 [label="gini = 0.0000\nsamples = 6\nvalue = [ 0.  0.  6.  0.  0.  0.]", shape="box"] ;
356 -> 357 ;
358 [label="gini = 0.0000\nsamples = 1\nvalue = [ 0.  1.  0.  0.  0.  0.]", shape="box"] ;
356 -> 358 ;
359 [label="X[10] <= 10.1500\ngini = 0.559171597633\nsamples = 26", shape="box"] ;
255 -> 359 ;
360 [label="gini = 0.0000\nsamples = 3\nvalue = [ 0.  0.  0.  0.  3.  0.]", shape="box"] ;
359 -> 360 ;
361 [label="X[1] <= 0.4100\ngini = 0.476370510397\nsamples = 23", shape="box"] ;
359 -> 361 ;
362 [label="gini = 0.0000\nsamples = 2\nvalue = [ 0.  0.  0.  0.  2.  0.]", shape="box"] ;
361 -> 362 ;
363 [label="X[9] <= 0.6950\ngini = 0.380952380952\nsamples = 21", shape="box"] ;
361 -> 363 ;
364 [label="X[5] <= 8.0000\ngini = 0.56\nsamples = 5", shape="box"] ;
363 -> 364 ;
365 [label="X[1] <= 0.6700\ngini = 0.5\nsamples = 2", shape="box"] ;
364 -> 365 ;
366 [label="gini = 0.0000\nsamples = 1\nvalue = [ 0.  0.  1.  0.  0.  0.]", shape="box"] ;
365 -> 366 ;
367 [label="gini = 0.0000\nsamples = 1\nvalue = [ 0.  1.  0.  0.  0.  0.]", shape="box"] ;
365 -> 367 ;
368 [label="gini = 0.0000\nsamples = 3\nvalue = [ 0.  0.  0.  3.  0.  0.]", shape="box"] ;
364 -> 368 ;
369 [label="X[3] <= 6.2000\ngini = 0.1171875\nsamples = 16", shape="box"] ;
363 -> 369 ;
370 [label="gini = 0.0000\nsamples = 15\nvalue = [  0.   0.  15.   0.   0.   0.]", shape="box"] ;
369 -> 370 ;
371 [label="gini = 0.0000\nsamples = 1\nvalue = [ 0.  0.  0.  1.  0.  0.]", shape="box"] ;
369 -> 371 ;
372 [label="X[9] <= 0.6850\ngini = 0.623596184036\nsamples = 91", shape="box"] ;
188 -> 372 ;
373 [label="X[6] <= 16.0000\ngini = 0.5275\nsamples = 40", shape="box"] ;
372 -> 373 ;
374 [label="gini = 0.0000\nsamples = 3\nvalue = [ 0.  0.  0.  0.  3.  0.]", shape="box"] ;
373 -> 374 ;
375 [label="X[4] <= 0.0615\ngini = 0.489408327246\nsamples = 37", shape="box"] ;
373 -> 375 ;
376 [label="X[0] <= 6.5500\ngini = 0.677685950413\nsamples = 11", shape="box"] ;
375 -> 376 ;
377 [label="X[9] <= 0.6250\ngini = 0.69387755102\nsamples = 7", shape="box"] ;
376 -> 377 ;
378 [label="X[5] <= 12.5000\ngini = 0.56\nsamples = 5", shape="box"] ;
377 -> 378 ;
379 [label="gini = 0.0000\nsamples = 1\nvalue = [ 0.  1.  0.  0.  0.  0.]", shape="box"] ;
378 -> 379 ;
380 [label="X[3] <= 1.9500\ngini = 0.375\nsamples = 4", shape="box"] ;
378 -> 380 ;
381 [label="X[10] <= 12.5000\ngini = 0.5\nsamples = 2", shape="box"] ;
380 -> 381 ;
382 [label="gini = 0.0000\nsamples = 1\nvalue = [ 0.  0.  0.  0.  1.  0.]", shape="box"] ;
381 -> 382 ;
383 [label="gini = 0.0000\nsamples = 1\nvalue = [ 0.  0.  0.  1.  0.  0.]", shape="box"] ;
381 -> 383 ;
384 [label="gini = 0.0000\nsamples = 2\nvalue = [ 0.  0.  0.  2.  0.  0.]", shape="box"] ;
380 -> 384 ;
385 [label="gini = 0.0000\nsamples = 2\nvalue = [ 0.  0.  2.  0.  0.  0.]", shape="box"] ;
377 -> 385 ;
386 [label="gini = 0.0000\nsamples = 4\nvalue = [ 0.  0.  0.  0.  4.  0.]", shape="box"] ;
376 -> 386 ;
387 [label="X[3] <= 5.2000\ngini = 0.269230769231\nsamples = 26", shape="box"] ;
375 -> 387 ;
388 [label="X[2] <= 0.7250\ngini = 0.2176\nsamples = 25", shape="box"] ;
387 -> 388 ;
389 [label="X[10] <= 11.6500\ngini = 0.15625\nsamples = 24", shape="box"] ;
388 -> 389 ;
390 [label="X[1] <= 0.4925\ngini = 0.5\nsamples = 2", shape="box"] ;
389 -> 390 ;
391 [label="gini = 0.0000\nsamples = 1\nvalue = [ 0.  0.  0.  0.  1.  0.]", shape="box"] ;
390 -> 391 ;
392 [label="gini = 0.0000\nsamples = 1\nvalue = [ 0.  0.  0.  1.  0.  0.]", shape="box"] ;
390 -> 392 ;
393 [label="X[1] <= 0.2650\ngini = 0.0867768595041\nsamples = 22", shape="box"] ;
389 -> 393 ;
394 [label="X[6] <= 28.5000\ngini = 0.444444444444\nsamples = 3", shape="box"] ;
393 -> 394 ;
395 [label="gini = 0.0000\nsamples = 1\nvalue = [ 0.  0.  1.  0.  0.  0.]", shape="box"] ;
394 -> 395 ;
396 [label="gini = 0.0000\nsamples = 2\nvalue = [ 0.  0.  0.  2.  0.  0.]", shape="box"] ;
394 -> 396 ;
397 [label="gini = 0.0000\nsamples = 19\nvalue = [  0.   0.   0.  19.   0.   0.]", shape="box"] ;
393 -> 397 ;
398 [label="gini = 0.0000\nsamples = 1\nvalue = [ 0.  0.  0.  0.  1.  0.]", shape="box"] ;
388 -> 398 ;
399 [label="gini = 0.0000\nsamples = 1\nvalue = [ 0.  0.  0.  0.  1.  0.]", shape="box"] ;
387 -> 399 ;
400 [label="X[7] <= 0.9997\ngini = 0.602845059592\nsamples = 51", shape="box"] ;
372 -> 400 ;
401 [label="X[10] <= 12.5500\ngini = 0.567677682209\nsamples = 47", shape="box"] ;
400 -> 401 ;
402 [label="X[9] <= 0.8550\ngini = 0.416171224732\nsamples = 29", shape="box"] ;
401 -> 402 ;
403 [label="X[3] <= 1.9500\ngini = 0.244897959184\nsamples = 21", shape="box"] ;
402 -> 403 ;
404 [label="X[9] <= 0.7850\ngini = 0.444444444444\nsamples = 3", shape="box"] ;
403 -> 404 ;
405 [label="gini = 0.0000\nsamples = 2\nvalue = [ 0.  0.  0.  2.  0.  0.]", shape="box"] ;
404 -> 405 ;
406 [label="gini = 0.0000\nsamples = 1\nvalue = [ 0.  0.  0.  0.  1.  0.]", shape="box"] ;
404 -> 406 ;
407 [label="X[4] <= 0.1610\ngini = 0.104938271605\nsamples = 18", shape="box"] ;
403 -> 407 ;
408 [label="gini = 0.0000\nsamples = 17\nvalue = [  0.   0.   0.   0.  17.   0.]", shape="box"] ;
407 -> 408 ;
409 [label="gini = 0.0000\nsamples = 1\nvalue = [ 0.  0.  0.  1.  0.  0.]", shape="box"] ;
407 -> 409 ;
410 [label="X[0] <= 9.5500\ngini = 0.59375\nsamples = 8", shape="box"] ;
402 -> 410 ;
411 [label="X[7] <= 0.9963\ngini = 0.56\nsamples = 5", shape="box"] ;
410 -> 411 ;
412 [label="gini = 0.0000\nsamples = 3\nvalue = [ 0.  0.  0.  0.  3.  0.]", shape="box"] ;
411 -> 412 ;
413 [label="X[8] <= 3.3200\ngini = 0.5\nsamples = 2", shape="box"] ;
411 -> 413 ;
414 [label="gini = 0.0000\nsamples = 1\nvalue = [ 0.  0.  0.  0.  0.  1.]", shape="box"] ;
413 -> 414 ;
415 [label="gini = 0.0000\nsamples = 1\nvalue = [ 0.  0.  0.  1.  0.  0.]", shape="box"] ;
413 -> 415 ;
416 [label="gini = 0.0000\nsamples = 3\nvalue = [ 0.  0.  0.  3.  0.  0.]", shape="box"] ;
410 -> 416 ;
417 [label="X[4] <= 0.0575\ngini = 0.685185185185\nsamples = 18", shape="box"] ;
401 -> 417 ;
418 [label="X[5] <= 21.5000\ngini = 0.46\nsamples = 10", shape="box"] ;
417 -> 418 ;
419 [label="X[1] <= 0.8425\ngini = 0.21875\nsamples = 8", shape="box"] ;
418 -> 419 ;
420 [label="gini = 0.0000\nsamples = 7\nvalue = [ 0.  0.  0.  0.  7.  0.]", shape="box"] ;
419 -> 420 ;
421 [label="gini = 0.0000\nsamples = 1\nvalue = [ 0.  0.  0.  0.  0.  1.]", shape="box"] ;
419 -> 421 ;
422 [label="gini = 0.0000\nsamples = 2\nvalue = [ 0.  0.  0.  2.  0.  0.]", shape="box"] ;
418 -> 422 ;
423 [label="X[4] <= 0.0870\ngini = 0.53125\nsamples = 8", shape="box"] ;
417 -> 423 ;
424 [label="X[6] <= 18.5000\ngini = 0.277777777778\nsamples = 6", shape="box"] ;
423 -> 424 ;
425 [label="X[4] <= 0.0690\ngini = 0.5\nsamples = 2", shape="box"] ;
424 -> 425 ;
426 [label="gini = 0.0000\nsamples = 1\nvalue = [ 0.  0.  0.  1.  0.  0.]", shape="box"] ;
425 -> 426 ;
427 [label="gini = 0.0000\nsamples = 1\nvalue = [ 0.  0.  0.  0.  0.  1.]", shape="box"] ;
425 -> 427 ;
428 [label="gini = 0.0000\nsamples = 4\nvalue = [ 0.  0.  0.  0.  0.  4.]", shape="box"] ;
424 -> 428 ;
429 [label="X[1] <= 0.4925\ngini = 0.5\nsamples = 2", shape="box"] ;
423 -> 429 ;
430 [label="gini = 0.0000\nsamples = 1\nvalue = [ 0.  0.  1.  0.  0.  0.]", shape="box"] ;
429 -> 430 ;
431 [label="gini = 0.0000\nsamples = 1\nvalue = [ 0.  0.  0.  1.  0.  0.]", shape="box"] ;
429 -> 431 ;
432 [label="X[3] <= 4.5500\ngini = 0.375\nsamples = 4", shape="box"] ;
400 -> 432 ;
433 [label="gini = 0.0000\nsamples = 3\nvalue = [ 0.  0.  0.  3.  0.  0.]", shape="box"] ;
432 -> 433 ;
434 [label="gini = 0.0000\nsamples = 1\nvalue = [ 0.  0.  1.  0.  0.  0.]", shape="box"] ;
432 -> 434 ;
}